tree
num_class=1
num_tree_per_iteration=1
label_index=0
max_feature_idx=19
objective=binary sigmoid:1
feature_names=pick_up_geohash_id drop_off_geohash_id distance duration surge pick_up_latitude pick_up_longitude drop_off_latitude drop_off_longitude dow mod is_weekend bearing bearing_bucket_30_degree bearing_bucket_45_degree mod_bucket_30_min mod_bucket_45_min mod_bucket_60_min distance_bucket success_rate_by_weekend_weekday
feature_infos=195:643:642:648:627:623:649:629:636:639:280:601:460:665:101:194:638:626:395:360:62:801:98:282:628:97:660:435:274:803:253:650:96:229:247:615:614:93:323:382:74:666:235:671:230:277:709:73:68:285:640:99:586:278:664:661:369:358:663:536:248:251:301:226:334:266:271:252:298:273:706:596:594:459:625:455:599:61:242:535:283:589:456:802:245:210:281:669:672:516:808:624:723:77:662:461:52:813:356:51:234:65:504:241:269:357:299:600:622:685:387:715:729:443:250:330:265:396:71:675:254:385:538:67:381:458:384:597:811:515:714:537:290:717:288:279:540:95:263:800:563:514:523:104:302:272:719:413:522:354:31:347:414:440:587:668:359:506:264:807:713:429:598:517:394:670:64:690:295:328:249:430:645:92:708:439:350:444:526:40:527:417:393:270:710:588:711:333:320:287:352:582:641:457:392:63:322:388:300:289:432:361:805:564:593:363:575:718:391:716:59:583:712:605:462:620:446:667:453:647:329:319:694:233:326:325:351:418:585:331:349:332:452:296:284:433:448:232:390:372:616:450:674:565:608:673:683:324:691:313:445:656:579:75:380:366:465:370:90:581:451:16:637:619:618:644:314:684:678:651:58:574:57:297:60:434:228:307:606:568:454:726:561:797:449:371:602:267:560:659:431:528:103:66:576:482:386:25:276:607:721:591:466:115:617:437:490:442:529:603:346:327:39:402:481:519:595:724:321:72:362:720:610:518:609:646:707:799:464:463:237:477:100:520:441:567:525:317:521:227:353:621:689:30:584:225:658:304:493:569:478:655:286:559:117:654:294:436:275:236:15:823:727:420:578:379:539:405:107:438:383:231:378:491:524:416:76:447:562:819:27:657:55:814:419:634:415:246:344:338:484:169:488:109:489:722:704:401:33:368:612:573:566:12:170:736:172:48:580:558:18:730:171:32:105:653:79:389:698:122 648:642:643:629:627:636:649:639:623:460:626:638:665:360:195:280:650:628:660:601:615:664:640:395:614:247:723:97:101:194:235:435:661:369:382:282:709:62:675:253:625:248:455:459:251:801:456:98:334:285:323:274:671:663:358:234:706:666:622:226:298:252:803:330:586:266:68:93:277:575:536:250:74:672:229:669:73:443:96:624:230:356:461:599:458:301:242:594:278:504:685:444:457:516:281:357:385:245:269:254:535:77:52:273:241:729:540:596:620:589:347:99:515:387:715:430:381:396:662:717:265:61:264:384:320:538:350:710:429:537:271:51:440:523:600:65:718:514:694:670:394:645:328:563:333:656:270:210:802:432:439:71:414:714:283:322:393:67:668:453:249:712:506:451:808:359:279:329:354:708:587:413:361:288:597:31:813:446:302:452:690:522:319:372:719:299:448:433:647:388:517:417:263:526:290:462:390:352:380:392:674:721:295:454:64:370:713:616:331:325:95:582:450:598:564:574:711:716:289:104:807:233:811:449:800:332:92:588:637:418:287:314:641:363:434:618:644:326:63:583:445:621:466:296:673:726:351:667:619:527:59:232:349:683:297:560:581:605:300:40:284:272:391:565:602:371:437:313:651:585:366:724:659:561:678:307:593:579:465:324:568:75:490:431:518:684:691:481:617:805:327:441:90:576:60:386:482:442:608:16:654:228:66:267:646:346:57:569:606:402:658:378:321:603:25:607:58:529:362:566:464:562:567:707:436:720:317:591:528:578:799:559:353:520:39:521:103:115:276:519:389:610:478:405:383:797:493:463:72:438:655:447:689:609:225:489:100:634:237:420:722:477:379:286:488:30:539:491:236:595:584:304:727:15:294:275:580:227:736:404:169:419:416:231:76:368:27:652:698:573:484:558:338:415:48:401:814:246:555:348:525:117:657:492:79:612:55:268:107:342:737:632:816:571:109:24:355:310:12:171:746:344:168:730:699:704:524:653:756:570:33:18:544:105:823:705:32:336:318:812:196 [0:57.841999053955078] [0:3838] [1:3] [1.2349452972412109:1.4696899652481079] [103.61387634277344:104.02259826660156] [1.2383972406387329:1.4697997570037842] [103.61384582519531:104.03376007080078] 4:5:2:1:0:3:6 none 0:1 [0:359.99740600585938] 240:90:60:270:210:30:120:150:180:300:0:330 225:90:45:270:135:180:0:315 570:600:630:660:540:690:810:780:720:750:840:480:510:60:420:450:870:360:0:390:30:300:330:900:90:270:240:1410:120:930:180:210:150:960:1380:990:1350:1320:1290:1260 585:630:540:675:810:765:720:495:450:855:45:405:360:0:315:270:90:900:225:1395:180:135:945:1350:990:1305:1260 540:600:660:780:720:480:840:420:60:360:0:300:240:900:180:120:1380:960:1320:1260 10:12:14:8:16:18:20:6:2:4:22:24:0:26:28:30:32:34:36:38:40:42:44:46:48:50:56:52 [-999:0.98648649454116821]

Tree=0
num_leaves=80
split_feature=19 2 2 19 19 19 2 2 4 4 4 11 4 11 7 2 19 19 2 19 4 8 8 2 19 8 19 2 19 2 2 7 2 19 7 7 9 2 2 2 2 1 2 8 2 2 7 7 2 19 2 2 2 8 2 11 2 2 2 8 19 8 2 2 2 8 7 2 19 2 12 7 2 4 7 4 4 8 7
split_gain=106117.01222507772 33297.126562857746 32249.493213617687 12918.795124889657 6308.2008291855527 2546.9265103669895 2503.2739116255416 1952.6893066262273 1538.3735703757811 1298.8433258621685 1069.0777498439347 1049.2234519221965 669.38539767803559 657.36415981573759 525.34094657592823 524.55149191919531 446.06967799935228 344.01494715186709 342.24838970705059 328.74591967490778 326.19221299592755 320.00255416208847 326.53884482673766 322.49356686334909 314.44656190430442 302.60269822557939 275.67446041298172 263.59065900846099 263.07687828140683 262.93972760107863 261.29557621724416 251.81987750936059 251.24342602498655 243.61793223696156 241.19767994837881 231.09505160132994 220.11312629596932 218.23066116642065 215.84950276753079 199.17863071174361 183.20829323835278 173.02497068602179 168.38023093593529 167.58933807142284 164.73490509648718 159.72029531347883 159.48979756447906 157.32123193351981 146.73643860070069 144.18476372220175 123.16860823766092 122.59531313490903 119.56829321703117 117.58446871518481 106.60140100769283 103.08706798131288 98.868227074153765 92.646234890591515 85.468184494697198 61.910662194978357 57.812115911005094 56.840359897375492 56.713270575868592 54.38353364716022 51.617198125394481 51.554830287016784 48.15591834991892 38.032755415984866 36.49834256135378 36.497455894954328 34.14251916956843 31.934541648120899 30.32083170937392 29.778503022205769 25.184395635705982 25.183718635342302 23.1237865918647 16.619895469964376 17.268863402985971
threshold=0.56330129504203796 4.689500093460083 5.0394999980926514 0.75773525238037109 0.32456140220165253 0.87564432621002197 3.1664999723434448 3.4005000591278076 1.0004646778106689 1.0001483559608459 1.000120222568512 1 1.0000019073486328 1 1.3218729496002197 22.342499732971191 0.67799538373947144 0.14642857760190964 24.92549991607666 9.9999996826552254e-21 1.0000442862510681 103.97280502319336 103.73290252685547 7.4944999217987061 0.77003204822540283 103.96214294433594 0.41885964572429657 6.5944998264312744 0.4027027040719986 5.8925001621246338 6.5944998264312744 1.3256288170814514 28.83650016784668 0.66838487982749939 1.3356293439865112 1.3298622965812683 5 8.8334999084472656 2.3645000457763672 2.4754999876022339 6.7135000228881836 196 6.3615000247955322 103.97280502319336 6.7135000228881836 8.377500057220459 1.3123950958251953 1.396107017993927 4.2314999103546143 0.91913688182830811 4.1175000667572021 17.90149974822998 27.126999855041504 103.9536018371582 3.7604999542236328 1 8.8334999084472656 20.019499778747559 22.614500045776367 103.84984970092773 0.14642857760190964 103.75106430053711 4.1175000667572021 27.464500427246094 7.0534999370574951 103.83436965942383 1.3068409562110901 2.0255000591278076 0.66838487982749939 1.7864999771118164 266.592041015625 1.3209384679794312 13.595499992370605 1.0000239014625549 1.3143985867500305 1.0019221901893616 1.0000019073486328 103.83597946166992 1.3176435232162476
decision_type=0 0 0 0 0 0 0 0 0 0 0 1 0 1 0 0 0 0 0 0 0 0 0 0 0 0 0 0 0 0 0 0 0 0 0 0 1 0 0 0 0 1 0 0 0 0 0 0 0 0 0 0 0 0 0 1 0 0 0 0 0 0 0 0 0 0 0 0 0 0 0 0 0 0 0 0 0 0 0
default_value=-9.9999996826552254e-21 0 0 -9.9999996826552254e-21 -9.9999996826552254e-21 -9.9999996826552254e-21 1.7976931348623157e+308 1.7976931348623157e+308 0 0 0 0 0 0 0 0 -9.9999996826552254e-21 -9.9999996826552254e-21 0 -9.9999996826552254e-21 0 0 0 0 -9.9999996826552254e-21 0 -9.9999996826552254e-21 0 -9.9999996826552254e-21 0 0 0 0 -9.9999996826552254e-21 0 0 0 0 0 0 0 0 0 0 0 0 0 0 0 -9.9999996826552254e-21 0 0 0 0 0 0 0 0 0 0 -9.9999996826552254e-21 0 0 0 0 0 0 0 -9.9999996826552254e-21 0 0 0 0 0 0 0 0 0 0
left_child=2 6 7 8 11 10 39 38 14 13 18 21 17 34 27 33 31 40 30 62 52 22 72 -24 48 28 55 -3 -15 -12 -5 44 -31 -16 45 37 -29 -28 69 67 -13 -14 -18 -43 -10 -6 -20 -44 65 58 77 -37 56 -33 -26 70 -7 -36 -22 -56 -40 -19 -9 -51 -57 -8 -41 -2 -17 -1 -11 -67 -4 -52 -75 -62 -64 -21 -79
right_child=1 3 4 5 9 20 24 19 16 26 29 12 41 25 15 68 42 61 46 50 49 -23 23 -25 54 -27 35 36 -30 32 -32 53 -34 -35 57 51 -38 -39 60 66 -42 43 47 -45 -46 -47 -48 -49 -50 63 73 -53 -54 -55 59 64 -58 -59 -60 -61 75 -63 76 -65 -66 71 -68 -69 -70 -71 -72 -73 -74 74 -76 -77 -78 78 -80
leaf_parent=69 67 27 72 30 45 56 65 62 44 70 29 40 41 28 33 68 42 61 46 77 58 21 23 23 54 25 37 36 28 32 30 53 32 33 57 51 36 37 60 66 40 43 47 43 44 45 46 47 48 63 73 51 52 53 59 64 56 57 58 59 75 61 76 63 64 71 66 67 68 69 70 71 72 74 74 75 76 78 78
leaf_value=-1.3042694067577583 -1.2506126371341346 -0.092059636728044972 -0.71927184981528536 0.15075623876925626 -0.14846014821783693 0.56835974132925871 -0.80962890157880696 -1.0309514118418281 0.081055288403007422 0.14892946824805764 0.30579947429305371 -0.85962496182954162 -0.70082644010327289 -0.32189594097650054 0.093198144276933528 -0.20670284501000968 0.14678426110662252 -0.61836821210002568 0.48437876658000262 -0.9048776820464739 0.93590886860764799 -0.75583729230160046 -0.4751843528506598 -0.19500509361188392 -0.39357419534674687 -0.65203255928359183 -0.0051420671162388347 0.52477482244759766 -0.15434109924762285 0.76254326650682036 0.56184201228500164 0.29447844222751007 0.355462626691954 0.28306178935794446 -0.038417169848690036 0.12291075068590698 0.27600535169137808 0.33266180293833153 -1.1686995398010136 -0.75110835259930941 -0.61901445987456005 -0.33833514633772765 0.58084738601523855 -0.72132557204341274 0.50404853178072129 0.22068071842056042 0.059409390444772434 0.30836264001306973 -0.30926631584036191 1.0368630797430904 -0.68547830991309244 -0.051654825668778631 0.46661172247463462 0.032757150659318911 -0.22178276067766661 -0.31650273005376556 0.84537712312684354 -0.25397887486967441 0.77038348384033262 0.10379015013285935 -1.0908290783790877 -0.42002432249157856 -0.94287491587136996 0.83721665842204374 -0.083118875188520028 -0.44117188316965683 -0.98950033845826713 -1.1000228786587012 -0.052067923823566301 -1.2232246604673924 -0.056523478053209453 -0.66406403117102364 -0.50646427720879483 -0.43921232851876246 -0.6372449834100965 -0.96882759113542638 -0.81884955003908089 -0.69477872428470211 -0.84564218618824571
leaf_count=11992 4924 2407 1546 2533 2156 2452 1669 6414 1558 4058 2206 4459 1989 20663 27728 5901 1693 2177 2347 2535 28994 1765 6573 36529 1873 2128 3854 7322 36809 78748 47398 25263 2535 17150 10191 15657 30064 11956 11373 1534 29776 31030 30898 1518 15536 8691 3565 3835 2559 35575 5338 9859 1778 2906 1514 1500 20054 3977 6786 1989 6889 13964 4328 2605 11698 1510 3215 3024 3589 12056 1731 1940 1965 1564 1863 2770 3144 1507 2565
internal_value=0 0.63372475950271379 -0.64685248386589311 0.780009641200897 -0.35870471224499129 1.0745821369630917 -1.1059678074139569 -1.5209996296456971 0.41663133186322132 -0.10278251703344908 0.91468832051401627 -0.61468485007929441 -0.72324682819711683 -0.23787674578769258 0.26327073395895317 0.15152946648586069 0.60227426802244888 -0.84135213631458583 0.71908676007311467 -1.1970097901474586 1.3135548704615831 -0.41392442456252559 -0.38547961619471793 -0.34314046435570517 -0.56892488896187443 -0.33332842870611284 0.096885967103814044 0.4221560886346436 -0.30870169824101462 1.0515493641011828 0.77037525939790519 0.48338820461909521 1.0697552291552628 0.23423524231275356 0.0019179322560832662 0.17920641346147848 0.46112266673329588 0.35109368008575847 -1.7108798580881752 -1.5652732857197398 -0.93159596128634292 -0.54185072536612156 0.75576869088363763 -0.51127796478576315 0.66045581394827135 0.20350709351162011 0.31317909938608895 0.78466904686619043 -0.7764343352407681 1.3779126430502273 -1.0327732736070798 0.076967886085369489 1.123870241923298 0.3801465111607466 -0.24501752153474909 -0.075451080696550585 1.1624977434107415 -0.14440201588382567 1.2910401668383487 -0.061069081692771074 -1.597385678776285 -0.6399092786940267 -1.3676739040998978 1.4611025797506734 -0.15847560968459554 -0.93021633224700684 -1.308340692456583 -1.7069922665785959 -0.21355650422642647 -1.8059135022063066 0.12221690842795538 -0.81365632865763504 -0.86145214745701582 -0.90478617639150738 -0.78469997546497028 -1.509572864758588 -1.2738696252903146 -1.1937856144259795 -1.1302960675998921
internal_count=791734 439177 352557 413426 278219 237576 25751 74338 175850 144928 139332 133291 84913 84615 94161 54368 81689 50376 55843 29258 98244 48378 46613 43102 13054 59600 60313 39793 57472 83489 49931 45263 81283 44878 25015 41326 37386 15810 45080 12697 34235 34537 36426 32548 17094 10847 5912 34733 7678 73960 15372 25516 24284 28169 5376 18987 22506 14168 35780 3503 21032 16141 13886 38180 13198 5119 4749 7948 9490 24048 5789 3450 3511 8765 3427 9659 7472 6607 4072
shrinkage=0.7
num_cat=0


Tree=1
num_leaves=80
split_feature=2 19 2 19 19 19 8 7 8 0 7 8 8 8 7 8 11 19 2 2 8 2 8 12 8 19 16 14 7 8 19 8 19 8 2 12 8 12 12 8 8 12 7 19 2 7 8 2 2 2 7 8 8 8 2 2 8 8 2 9 2 9 7 7 19 7 8 2 2 12 7 7 7 7 8 7 12 8 8
split_gain=16938.499285107999 8426.5049892847892 2456.5784787225421 1613.753033406334 1524.6756013809472 664.40690753749232 551.06716562766542 604.03522469264817 519.12185962951014 513.02596964841632 499.89245933215579 547.90936033318485 528.5785704727972 434.90448229441836 371.01343514022346 295.99962708216799 287.95638470998188 257.77959627406017 221.00859060207949 184.56036587053313 183.15411038919092 180.35870949475736 159.698722105299 131.2576590744153 126.5845975220725 126.39203913730989 121.95726690767424 121.60576033217717 120.29737188032686 121.8388768839243 106.16653899263315 101.85031978446608 100.70229213345829 91.07929782454994 86.984431027711821 85.928760608605671 124.5319383127956 84.237502878915819 78.072494272695508 65.317218741653733 56.398358015648682 53.121230374535031 47.389724410737244 41.460114951675678 41.251774494739266 40.874540786456691 40.255642304926624 39.402164238414287 37.161809077370378 36.730093862991993 36.315390780586313 35.53714898453174 101.39691834950483 39.161602122263645 31.633534360262729 31.293739472538618 30.611540044337289 26.829082840324077 25.560060288519043 23.219158032371638 20.308077225038765 19.70694177029236 18.780233154927032 17.193278793666838 16.984262354425717 14.995639948148892 15.119362419338813 13.624283768601316 13.584967705627605 13.500939580670092 12.755331461433343 10.360017210656849 10.316858883739769 10.222722518943897 9.9138363998818022 9.080601109383565 9.0671587842539338 7.6942635173659255 7.2816383222088916
threshold=5.7755000591278076 0.68070331215858459 3.1664999723434448 0.83447486162185669 0.34057971835136414 0.52786380052566528 103.72500228881836 1.4024387001991272 103.91711807250977 122 1.4024387001991272 103.95779418945312 103.73290252685547 103.96701431274414 1.4010453224182129 103.72500228881836 1 0.93369963765144348 2.1395000219345093 30.095499992370605 103.90834426879883 11.609499931335449 103.97280502319336 323.76336669921875 103.78321838378906 0.14642857760190964 495 90 1.3360427618026733 103.81471633911133 0.81881311535835266 103.68696594238281 0.66838487982749939 103.95038986206055 14.871500015258789 124.23670196533203 103.79181289672852 281.12646484375 289.35939025878906 103.77775955200195 103.79662704467773 281.12646484375 1.3324358463287354 0.28991597890853882 4.0074999332427979 1.337066650390625 103.81923294067383 3.6464999914169312 2.6935000419616699 13.595499992370605 1.3014355301856995 103.8658332824707 103.90701293945312 103.76357269287109 4.0074999332427979 1.5235000252723694 103.93335723876953 103.80031967163086 3.8815000057220459 5 23.153499603271484 4 1.3002017736434937 1.3310673832893372 0.55363985896110535 1.4173638820648193 103.83035659790039 19.540500640869141 2.9205000400543213 199.52408599853516 1.2786235213279724 1.3238024711608887 1.312797486782074 1.3475933074951172 103.83869552612305 1.3071843981742859 90.255516052246094 103.84331893920898 103.89252090454102
decision_type=0 0 0 0 0 0 0 0 0 1 0 0 0 0 0 0 1 0 0 0 0 0 0 0 0 0 1 1 0 0 0 0 0 0 0 0 0 0 0 0 0 0 0 0 0 0 0 0 0 0 0 0 0 0 0 0 0 0 0 1 0 1 0 0 0 0 0 0 0 0 0 0 0 0 0 0 0 0 0
default_value=0 -9.9999996826552254e-21 1.7976931348623157e+308 -9.9999996826552254e-21 -9.9999996826552254e-21 -9.9999996826552254e-21 0 0 0 0 0 0 0 0 0 0 0 -9.9999996826552254e-21 0 0 0 0 0 0 0 -9.9999996826552254e-21 0 0 0 0 -9.9999996826552254e-21 0 -9.9999996826552254e-21 0 0 0 0 0 0 0 0 0 0 -9.9999996826552254e-21 0 0 0 0 0 0 0 0 0 0 1.7976931348623157e+308 0 0 0 1.7976931348623157e+308 0 0 0 0 0 -9.9999996826552254e-21 0 0 0 0 1.7976931348623157e+308 0 0 0 0 0 0 0 0 0
left_child=2 4 18 13 9 25 31 8 16 35 11 12 -11 14 15 37 -8 19 55 26 -17 -13 -10 46 38 40 63 -9 29 -7 58 -6 43 -28 -26 45 -37 -3 -12 -29 42 67 -4 65 77 -2 -16 -30 -34 -38 -45 53 -53 -49 75 -1 61 73 -31 -56 -25 71 -59 -5 -43 66 -20 -33 -52 -32 -63 -19 74 -46 -57 -42 -74 -27 -79
right_child=1 3 5 17 6 28 7 27 22 10 24 21 -14 -15 23 20 -18 56 32 -21 -22 -23 -24 60 34 44 33 39 47 30 69 41 48 -35 -36 36 49 -39 -40 -41 54 64 -44 50 57 -47 -48 51 -50 -51 68 52 -54 -55 59 72 -58 62 -60 -61 -62 70 -64 -65 -66 -67 -68 -69 -70 -71 -72 -73 76 -75 -76 -77 -78 78 -80
leaf_parent=55 45 37 42 63 31 29 16 27 22 12 38 21 12 13 46 20 16 71 66 19 20 21 22 60 34 77 33 39 47 58 69 67 48 33 34 36 49 37 38 39 75 64 42 50 73 45 46 53 48 49 68 52 52 53 59 74 56 62 58 59 60 70 62 63 64 65 66 67 68 69 70 71 76 73 74 75 76 78 78
leaf_value=-0.76336609898045915 -0.34536977410198993 -0.28566036183706089 -0.66427279665793526 0.18822169038407852 -0.51717003137267781 -0.29655349796330494 0.19255820771503107 0.17273431403709716 -0.030614304195151574 -0.28655874603983028 -0.25099189835692493 -0.53122283208032417 -0.015715783051019373 -0.37067804527935044 -0.25902709667598567 0.2337659809221824 0.070917636725153943 0.48742176590303998 -0.69202691770356628 0.03516773469475197 0.095156071725225957 -0.21220075370876404 -0.27320635915105512 0.055167753798355729 -0.11062203566763743 -0.4151521075813227 0.37455702438903782 -0.30969369365552224 -0.37935595830971336 -0.17507351852098865 0.251404616874155 -0.35724177241454796 -0.47807798542622892 0.16187343801400533 -0.27437424384902009 -0.4900871205816979 -0.26961648288093332 0.048734409560221729 -0.5395099294816903 -0.12537173377335389 -0.38497173182569833 -0.1574755896759569 -0.44292298817142151 -0.37318031272756502 -0.42006396962062842 -0.55675308478946051 -0.063950042084716607 -0.10935443261149475 -0.24779917598854781 -0.035707502754000475 -0.58199261530174395 0.058258046845353247 -0.31656375285654448 -0.35972714895685493 -0.23752504166162777 -0.68746465915987587 0.31830973864796253 -0.15060406055272799 -0.026361441765171405 -0.37538032042701897 0.22327997356684115 0.4198662275967715 -0.26013113165948859 -0.010335322758644426 0.021760187807205903 -0.51379224833343251 -0.60256003780121692 -0.22203302789060564 -0.4616656069605124 0.096157752361319224 0.54474887234563485 0.35678014793536045 -0.63067358784680549 -0.28526958920533779 -0.574309329319733 -0.49190119778070496 -0.71515023071006478 -0.28891996115186547 -0.39530103613766399
leaf_count=9444 2050 2218 2035 1879 1588 2298 45632 1946 25527 11241 2263 3603 97556 2317 2810 118228 100583 3475 4503 3232 19904 7203 4562 2841 7507 3143 104045 3157 1638 2186 2335 1645 2271 4238 11815 2104 1665 2967 2876 19334 1764 1515 4056 2119 1597 3021 4257 1534 1957 2236 6147 2639 1828 2301 2273 2175 1930 2997 7094 8080 2311 2031 8778 1512 1669 1808 7853 2911 1818 1537 21202 2336 2689 1517 2794 3896 7835 2217 1636
internal_value=0 0.11579644375237842 -0.59682843169031452 0.3747534492060125 -0.050507126230224256 -0.38552765869748074 0.050487767351798135 0.070924327246472241 0.10859819104349372 -0.17721022807547768 -0.14905144451700467 -0.10223525839590021 -0.064497738947914857 0.24592058286683946 0.25900938668111217 0.28752035517733204 0.15397258530076827 0.53845232875936466 -0.88597057725868933 0.49551317039330578 0.30504495162302325 -0.46306190991177698 -0.099515549955497037 -0.050023368173893093 -0.36760035074594094 -0.51145404426100682 0.51077918375232079 -0.18305342125961285 -0.15841445053854308 -0.060147051384144168 0.0071295086761141773 -0.35621573775158882 -0.78117924907344938 0.52332724109678885 -0.30360700112095385 -0.52195244017272457 -0.38367676280516522 -0.1506020955766483 -0.59708934691755922 -0.21772863188621766 -0.60387021865703849 -0.27245817185619442 -0.7433143382857863 -0.82507291999915111 -0.41994210735188287 -0.67767136995812249 -0.20713777938849132 -0.30614773234833564 -0.53204950987234045 -0.19791143039048659 -0.73968651034481936 -0.25577953900125266 -0.1477520807677398 -0.37634209616142189 -0.54947726622799831 -1.0101984689966916 0.71659856438945457 -0.37012997316783069 -0.089516179773563853 -0.49416697945439131 0.18486069217658524 0.73448989058930303 -0.33264580495980417 0.14057791592186905 -0.096500514101753754 -0.88708932896918768 -0.9087893299663119 -0.38842331940363156 -0.79319308656806209 0.2686846511690193 0.76295506080869213 0.6214728684918015 -0.96071856787610765 -0.50849683000050416 -0.89297816309445688 -0.65639624972632793 -0.99223939381411097 -0.53022639032446095 -0.4783171434020802
internal_count=791734 668942 122792 303733 365209 69379 210069 200741 176304 155140 144064 119603 108797 157853 155536 143317 146215 145880 53413 114906 138132 10806 30089 12219 24461 43989 111674 24437 25390 15450 13152 9328 28476 108283 19322 11076 6005 5185 5139 22491 22104 7740 6091 24248 21885 5071 7067 9940 4228 3901 10084 8302 4467 3835 16013 24937 30974 14889 9280 10353 5152 29044 11775 3391 3184 14164 12356 4556 7965 3872 23233 5811 15493 3114 4969 5660 10524 6996 3853
shrinkage=0.6993
num_cat=0


feature importances:
pick_up_latitude=1248
pick_up_longitude=1193
success_rate_by_weekend_weekday=1025
drop_off_latitude=981
pick_up_geohash_id=909
drop_off_longitude=887
duration=809
distance=799
bearing=742
surge=670
drop_off_geohash_id=539
mod_bucket_60_min=423
mod_bucket_30_min=374
mod_bucket_45_min=341
dow=294
distance_bucket=159
bearing_bucket_30_degree=129
bearing_bucket_45_degree=113
is_weekend=109

pandas_categorical:null